{
    "params": {
        "bootstrap": true,
        "ccp_alpha": 0.0,
        "class_weight": null,
        "criterion": "gini",
        "max_depth": null,
        "max_features": "sqrt",
        "max_leaf_nodes": null,
        "max_samples": null,
        "min_impurity_decrease": 0.0,
        "min_samples_leaf": 1,
        "min_samples_split": 2,
        "min_weight_fraction_leaf": 0.0,
        "monotonic_cst": null,
        "n_estimators": 100,
        "n_jobs": null,
        "oob_score": false,
        "random_state": 42,
        "verbose": 0,
        "warm_start": false
    },
    "estimators": [
        {
            "children_left": [
                1,
                2,
                -1,
                4,
                -1,
                6,
                -1,
                -1,
                9,
                10,
                -1,
                12,
                13,
                14,
                -1,
                -1,
                -1,
                18,
                19,
                -1,
                21,
                22,
                -1,
                24,
                -1,
                -1,
                -1,
                28,
                -1,
                30,
                -1,
                -1,
                33,
                -1,
                -1
            ],
            "children_right": [
                8,
                3,
                -1,
                5,
                -1,
                7,
                -1,
                -1,
                32,
                11,
                -1,
                17,
                16,
                15,
                -1,
                -1,
                -1,
                27,
                20,
                -1,
                26,
                23,
                -1,
                25,
                -1,
                -1,
                -1,
                29,
                -1,
                31,
                -1,
                -1,
                34,
                -1,
                -1
            ],
            "feature": [
                2,
                15,
                -2,
                19,
                -2,
                0,
                -2,
                -2,
                15,
                16,
                -2,
                12,
                21,
                0,
                -2,
                -2,
                -2,
                18,
                16,
                -2,
                3,
                18,
                -2,
                8,
                -2,
                -2,
                -2,
                23,
                -2,
                7,
                -2,
                -2,
                4,
                -2,
                -2
            ],
            "threshold": [
                2.4037585258483887,
                1.126348853111267,
                -2.0,
                0.0018717313650995493,
                -2.0,
                2.0759652853012085,
                -2.0,
                -2.0,
                1.1237698793411255,
                2.3883676528930664,
                -2.0,
                -1.4737406373023987,
                1.6255505084991455,
                2.861484169960022,
                -2.0,
                -2.0,
                -2.0,
                3.1694271564483643,
                2.62602698802948,
                -2.0,
                -0.00411086343228817,
                3.157436966896057,
                -2.0,
                3.096783757209778,
                -2.0,
                -2.0,
                -2.0,
                1.1143574118614197,
                -2.0,
                1.1098703742027283,
                -2.0,
                -2.0,
                -1.4624749422073364,
                -2.0,
                -2.0
            ],
            "value": [
                [
                    [
                        0.484375,
                        0.125,
                        0.140625,
                        0.1359375,
                        0.1140625
                    ]
                ],
                [
                    [
                        0.6434426229508197,
                        0.0,
                        0.0,
                        0.35655737704918034,
                        0.0
                    ]
                ],
                [
                    [
                        1.0,
                        0.0,
                        0.0,
                        0.0,
                        0.0
                    ]
                ],
                [
                    [
                        0.03333333333333333,
                        0.0,
                        0.0,
                        0.9666666666666667,
                        0.0
                    ]
                ],
                [
                    [
                        0.0,
                        0.0,
                        0.0,
                        1.0,
                        0.0
                    ]
                ],
                [
                    [
                        0.0967741935483871,
                        0.0,
                        0.0,
                        0.9032258064516129,
                        0.0
                    ]
                ],
                [
                    [
                        1.0,
                        0.0,
                        0.0,
                        0.0,
                        0.0
                    ]
                ],
                [
                    [
                        0.0,
                        0.0,
                        0.0,
                        1.0,
                        0.0
                    ]
                ],
                [
                    [
                        0.38636363636363635,
                        0.20202020202020202,
                        0.22727272727272727,
                        0.0,
                        0.18434343434343434
                    ]
                ],
                [
                    [
                        0.4935483870967742,
                        0.25806451612903225,
                        0.016129032258064516,
                        0.0,
                        0.23225806451612904
                    ]
                ],
                [
                    [
                        0.0,
                        0.0,
                        0.0,
                        0.0,
                        1.0
                    ]
                ],
                [
                    [
                        0.6428571428571429,
                        0.33613445378151263,
                        0.02100840336134454,
                        0.0,
                        0.0
                    ]
                ],
                [
                    [
                        0.9104477611940298,
                        0.04477611940298507,
                        0.04477611940298507,
                        0.0,
                        0.0
                    ]
                ],
                [
                    [
                        0.953125,
                        0.046875,
                        0.0,
                        0.0,
                        0.0
                    ]
                ],
                [
                    [
                        1.0,
                        0.0,
                        0.0,
                        0.0,
                        0.0
                    ]
                ],
                [
                    [
                        0.0,
                        1.0,
                        0.0,
                        0.0,
                        0.0
                    ]
                ],
                [
                    [
                        0.0,
                        0.0,
                        1.0,
                        0.0,
                        0.0
                    ]
                ],
                [
                    [
                        0.5380116959064327,
                        0.4502923976608187,
                        0.011695906432748537,
                        0.0,
                        0.0
                    ]
                ],
                [
                    [
                        0.9157894736842105,
                        0.06315789473684211,
                        0.021052631578947368,
                        0.0,
                        0.0
                    ]
                ],
                [
                    [
                        0.0,
                        0.0,
                        1.0,
                        0.0,
                        0.0
                    ]
                ],
                [
                    [
                        0.9354838709677419,
                        0.06451612903225806,
                        0.0,
                        0.0,
                        0.0
                    ]
                ],
                [
                    [
                        0.7857142857142857,
                        0.21428571428571427,
                        0.0,
                        0.0,
                        0.0
                    ]
                ],
                [
                    [
                        1.0,
                        0.0,
                        0.0,
                        0.0,
                        0.0
                    ]
                ],
                [
                    [
                        0.3333333333333333,
                        0.6666666666666666,
                        0.0,
                        0.0,
                        0.0
                    ]
                ],
                [
                    [
                        0.0,
                        1.0,
                        0.0,
                        0.0,
                        0.0
                    ]
                ],
                [
                    [
                        1.0,
                        0.0,
                        0.0,
                        0.0,
                        0.0
                    ]
                ],
                [
                    [
                        1.0,
                        0.0,
                        0.0,
                        0.0,
                        0.0
                    ]
                ],
                [
                    [
                        0.06578947368421052,
                        0.9342105263157895,
                        0.0,
                        0.0,
                        0.0
                    ]
                ],
                [
                    [
                        1.0,
                        0.0,
                        0.0,
                        0.0,
                        0.0
                    ]
                ],
                [
                    [
                        0.013888888888888888,
                        0.9861111111111112,
                        0.0,
                        0.0,
                        0.0
                    ]
                ],
                [
                    [
                        0.0,
                        1.0,
                        0.0,
                        0.0,
                        0.0
                    ]
                ],
                [
                    [
                        1.0,
                        0.0,
                        0.0,
                        0.0,
                        0.0
                    ]
                ],
                [
                    [
                        0.0,
                        0.0,
                        0.9883720930232558,
                        0.0,
                        0.011627906976744186
                    ]
                ],
                [
                    [
                        0.0,
                        0.0,
                        1.0,
                        0.0,
                        0.0
                    ]
                ],
                [
                    [
                        0.0,
                        0.0,
                        0.0,
                        0.0,
                        1.0
                    ]
                ]
            ],
            "impurity": [
                0.6984912109375,
                0.458848427841978,
                0.0,
                0.06444444444444442,
                0.0,
                0.17481789802289283,
                0.0,
                0.0,
                0.7242755841240689,
                0.6356087408949012,
                0.0,
                0.47330696984676224,
                0.16707507239919805,
                0.08935546875,
                0.0,
                0.0,
                0.0,
                0.5076433774494716,
                0.15689750692520776,
                0.0,
                0.12070759625390215,
                0.33673469387755106,
                0.0,
                0.4444444444444444,
                0.0,
                0.0,
                0.0,
                0.12292243767313016,
                0.0,
                0.027391975308642014,
                0.0,
                0.0,
                0.02298539751216877,
                0.0,
                0.0
            ]
        },
        {
            "children_left": [
                1,
                -1,
                3,
                -1,
                5,
                6,
                7,
                8,
                -1,
                -1,
                11,
                -1,
                -1,
                -1,
                15,
                16,
                17,
                -1,
                -1,
                20,
                -1,
                -1,
                23,
                -1,
                25,
                -1,
                27,
                -1,
                -1
            ],
            "children_right": [
                2,
                -1,
                4,
                -1,
                14,
                13,
                10,
                9,
                -1,
                -1,
                12,
                -1,
                -1,
                -1,
                22,
                19,
                18,
                -1,
                -1,
                21,
                -1,
                -1,
                24,
                -1,
                26,
                -1,
                28,
                -1,
                -1
            ],
            "feature": [
                2,
                -2,
                9,
                -2,
                2,
                9,
                13,
                0,
                -2,
                -2,
                19,
                -2,
                -2,
                -2,
                6,
                0,
                20,
                -2,
                -2,
                18,
                -2,
                -2,
                17,
                -2,
                23,
                -2,
                1,
                -2,
                -2
            ],
            "threshold": [
                2.301231622695923,
                -2.0,
                3.603515625,
                -2.0,
                3.016735315322876,
                4.58447265625,
                1.6892803311347961,
                2.1527602672576904,
                -2.0,
                -2.0,
                -0.0011035946663469076,
                -2.0,
                -2.0,
                -2.0,
                1.8084748983383179,
                2.8079144954681396,
                -1.450726866722107,
                -2.0,
                -2.0,
                3.0786982774734497,
                -2.0,
                -2.0,
                5.34271240234375,
                -2.0,
                1.1165785193443298,
                -2.0,
                5.14251708984375,
                -2.0,
                -2.0
            ],
            "value": [
                [
                    [
                        0.50625,
                        0.13125,
                        0.1078125,
                        0.11875,
                        0.1359375
                    ]
                ],
                [
                    [
                        1.0,
                        0.0,
                        0.0,
                        0.0,
                        0.0
                    ]
                ],
                [
                    [
                        0.3946360153256705,
                        0.16091954022988506,
                        0.13218390804597702,
                        0.14559386973180077,
                        0.16666666666666666
                    ]
                ],
                [
                    [
                        0.0,
                        0.0,
                        0.0,
                        1.0,
                        0.0
                    ]
                ],
                [
                    [
                        0.4618834080717489,
                        0.18834080717488788,
                        0.1547085201793722,
                        0.0,
                        0.19506726457399104
                    ]
                ],
                [
                    [
                        0.20833333333333334,
                        0.0,
                        0.3385416666666667,
                        0.0,
                        0.453125
                    ]
                ],
                [
                    [
                        0.31496062992125984,
                        0.0,
                        0.0,
                        0.0,
                        0.6850393700787402
                    ]
                ],
                [
                    [
                        0.19,
                        0.0,
                        0.0,
                        0.0,
                        0.81
                    ]
                ],
                [
                    [
                        1.0,
                        0.0,
                        0.0,
                        0.0,
                        0.0
                    ]
                ],
                [
                    [
                        0.0,
                        0.0,
                        0.0,
                        0.0,
                        1.0
                    ]
                ],
                [
                    [
                        0.7777777777777778,
                        0.0,
                        0.0,
                        0.0,
                        0.2222222222222222
                    ]
                ],
                [
                    [
                        0.0,
                        0.0,
                        0.0,
                        0.0,
                        1.0
                    ]
                ],
                [
                    [
                        1.0,
                        0.0,
                        0.0,
                        0.0,
                        0.0
                    ]
                ],
                [
                    [
                        0.0,
                        0.0,
                        1.0,
                        0.0,
                        0.0
                    ]
                ],
                [
                    [
                        0.6535433070866141,
                        0.33070866141732286,
                        0.015748031496062992,
                        0.0,
                        0.0
                    ]
                ],
                [
                    [
                        0.48175182481751827,
                        0.48905109489051096,
                        0.029197080291970802,
                        0.0,
                        0.0
                    ]
                ],
                [
                    [
                        0.9333333333333333,
                        0.0,
                        0.06666666666666667,
                        0.0,
                        0.0
                    ]
                ],
                [
                    [
                        1.0,
                        0.0,
                        0.0,
                        0.0,
                        0.0
                    ]
                ],
                [
                    [
                        0.0,
                        0.0,
                        1.0,
                        0.0,
                        0.0
                    ]
                ],
                [
                    [
                        0.12987012987012986,
                        0.8701298701298701,
                        0.0,
                        0.0,
                        0.0
                    ]
                ],
                [
                    [
                        1.0,
                        0.0,
                        0.0,
                        0.0,
                        0.0
                    ]
                ],
                [
                    [
                        0.0,
                        1.0,
                        0.0,
                        0.0,
                        0.0
                    ]
                ],
                [
                    [
                        0.8547008547008547,
                        0.1452991452991453,
                        0.0,
                        0.0,
                        0.0
                    ]
                ],
                [
                    [
                        1.0,
                        0.0,
                        0.0,
                        0.0,
                        0.0
                    ]
                ],
                [
                    [
                        0.43333333333333335,
                        0.5666666666666667,
                        0.0,
                        0.0,
                        0.0
                    ]
                ],
                [
                    [
                        1.0,
                        0.0,
                        0.0,
                        0.0,
                        0.0
                    ]
                ],
                [
                    [
                        0.10526315789473684,
                        0.8947368421052632,
                        0.0,
                        0.0,
                        0.0
                    ]
                ],
                [
                    [
                        1.0,
                        0.0,
                        0.0,
                        0.0,
                        0.0
                    ]
                ],
                [
                    [
                        0.0,
                        1.0,
                        0.0,
                        0.0,
                        0.0
                    ]
                ]
            ],
            "impurity": [
                0.6822802734375,
                0.0,
                0.7519193787525139,
                0.0,
                0.6892054937762674,
                0.6366644965277778,
                0.4315208630417261,
                0.30779999999999996,
                0.0,
                0.0,
                0.345679012345679,
                0.0,
                0.0,
                0.0,
                0.46326492652985307,
                0.5278917363738078,
                0.12444444444444447,
                0.0,
                0.0,
                0.22600775847529098,
                0.0,
                0.0,
                0.24837460734896633,
                0.0,
                0.49111111111111116,
                0.0,
                0.18836565096952906,
                0.0,
                0.0
            ]
        },
        {
            "children_left": [
                1,
                2,
                3,
                4,
                -1,
                -1,
                7,
                8,
                -1,
                -1,
                11,
                12,
                13,
                14,
                -1,
                -1,
                -1,
                -1,
                -1,
                20,
                21,
                -1,
                -1,
                -1,
                25,
                26,
                -1,
                -1,
                29,
                30,
                31,
                32,
                33,
                -1,
                35,
                -1,
                -1,
                -1,
                -1,
                40,
                41,
                -1,
                43,
                44,
                -1,
                46,
                -1,
                -1,
                -1,
                50,
                -1,
                -1,
                53,
                54,
                -1,
                -1,
                -1
            ],
            "children_right": [
                24,
                19,
                6,
                5,
                -1,
                -1,
                10,
                9,
                -1,
                -1,
                18,
                17,
                16,
                15,
                -1,
                -1,
                -1,
                -1,
                -1,
                23,
                22,
                -1,
                -1,
                -1,
                28,
                27,
                -1,
                -1,
                52,
                39,
                38,
                37,
                34,
                -1,
                36,
                -1,
                -1,
                -1,
                -1,
                49,
                42,
                -1,
                48,
                45,
                -1,
                47,
                -1,
                -1,
                -1,
                51,
                -1,
                -1,
                56,
                55,
                -1,
                -1,
                -1
            ],
            "feature": [
                9,
                18,
                23,
                8,
                -2,
                -2,
                20,
                3,
                -2,
                -2,
                9,
                4,
                22,
                3,
                -2,
                -2,
                -2,
                -2,
                -2,
                6,
                5,
                -2,
                -2,
                -2,
                9,
                0,
                -2,
                -2,
                18,
                14,
                23,
                0,
                15,
                -2,
                19,
                -2,
                -2,
                -2,
                -2,
                15,
                10,
                -2,
                2,
                2,
                -2,
                21,
                -2,
                -2,
                -2,
                23,
                -2,
                -2,
                23,
                14,
                -2,
                -2,
                -2
            ],
            "threshold": [
                3.68359375,
                2.5340808629989624,
                1.1165616512298584,
                1.9128261804580688,
                -2.0,
                -2.0,
                -1.4845885038375854,
                0.003035508969333023,
                -2.0,
                -2.0,
                3.18310546875,
                -1.5077741742134094,
                1.7684093117713928,
                -0.008636281592771411,
                -2.0,
                -2.0,
                -2.0,
                -2.0,
                -2.0,
                1.6250801086425781,
                1.4455265998840332,
                -2.0,
                -2.0,
                -2.0,
                4.3992919921875,
                2.152389883995056,
                -2.0,
                -2.0,
                3.165709376335144,
                1.8306130170822144,
                1.13001149892807,
                2.8454484939575195,
                1.1176140308380127,
                -2.0,
                0.004234512911352795,
                -2.0,
                -2.0,
                -2.0,
                -2.0,
                1.1237894296646118,
                2.547590136528015,
                -2.0,
                2.990423321723938,
                2.417914032936096,
                -2.0,
                1.7303109765052795,
                -2.0,
                -2.0,
                -2.0,
                1.123349666595459,
                -2.0,
                -2.0,
                1.1147276759147644,
                1.8084598779678345,
                -2.0,
                -2.0,
                -2.0
            ],
            "value": [
                [
                    [
                        0.490625,
                        0.1265625,
                        0.1078125,
                        0.1453125,
                        0.1296875
                    ]
                ],
                [
                    [
                        0.581081081081081,
                        0.0,
                        0.0,
                        0.4189189189189189,
                        0.0
                    ]
                ],
                [
                    [
                        0.7575757575757576,
                        0.0,
                        0.0,
                        0.24242424242424243,
                        0.0
                    ]
                ],
                [
                    [
                        0.9528301886792453,
                        0.0,
                        0.0,
                        0.04716981132075472,
                        0.0
                    ]
                ],
                [
                    [
                        1.0,
                        0.0,
                        0.0,
                        0.0,
                        0.0
                    ]
                ],
                [
                    [
                        0.0,
                        0.0,
                        0.0,
                        1.0,
                        0.0
                    ]
                ],
                [
                    [
                        0.4067796610169492,
                        0.0,
                        0.0,
                        0.5932203389830508,
                        0.0
                    ]
                ],
                [
                    [
                        0.038461538461538464,
                        0.0,
                        0.0,
                        0.9615384615384616,
                        0.0
                    ]
                ],
                [
                    [
                        0.0,
                        0.0,
                        0.0,
                        1.0,
                        0.0
                    ]
                ],
                [
                    [
                        1.0,
                        0.0,
                        0.0,
                        0.0,
                        0.0
                    ]
                ],
                [
                    [
                        0.696969696969697,
                        0.0,
                        0.0,
                        0.30303030303030304,
                        0.0
                    ]
                ],
                [
                    [
                        0.7931034482758621,
                        0.0,
                        0.0,
                        0.20689655172413793,
                        0.0
                    ]
                ],
                [
                    [
                        0.92,
                        0.0,
                        0.0,
                        0.08,
                        0.0
                    ]
                ],
                [
                    [
                        0.8181818181818182,
                        0.0,
                        0.0,
                        0.18181818181818182,
                        0.0
                    ]
                ],
                [
                    [
                        0.0,
                        0.0,
                        0.0,
                        1.0,
                        0.0
                    ]
                ],
                [
                    [
                        1.0,
                        0.0,
                        0.0,
                        0.0,
                        0.0
                    ]
                ],
                [
                    [
                        1.0,
                        0.0,
                        0.0,
                        0.0,
                        0.0
                    ]
                ],
                [
                    [
                        0.0,
                        0.0,
                        0.0,
                        1.0,
                        0.0
                    ]
                ],
                [
                    [
                        0.0,
                        0.0,
                        0.0,
                        1.0,
                        0.0
                    ]
                ],
                [
                    [
                        0.07017543859649122,
                        0.0,
                        0.0,
                        0.9298245614035088,
                        0.0
                    ]
                ],
                [
                    [
                        0.19047619047619047,
                        0.0,
                        0.0,
                        0.8095238095238095,
                        0.0
                    ]
                ],
                [
                    [
                        0.0,
                        0.0,
                        0.0,
                        1.0,
                        0.0
                    ]
                ],
                [
                    [
                        1.0,
                        0.0,
                        0.0,
                        0.0,
                        0.0
                    ]
                ],
                [
                    [
                        0.0,
                        0.0,
                        0.0,
                        1.0,
                        0.0
                    ]
                ],
                [
                    [
                        0.44258373205741625,
                        0.1937799043062201,
                        0.16507177033492823,
                        0.0,
                        0.19856459330143542
                    ]
                ],
                [
                    [
                        0.2,
                        0.0,
                        0.0,
                        0.0,
                        0.8
                    ]
                ],
                [
                    [
                        1.0,
                        0.0,
                        0.0,
                        0.0,
                        0.0
                    ]
                ],
                [
                    [
                        0.0,
                        0.0,
                        0.0,
                        0.0,
                        1.0
                    ]
                ],
                [
                    [
                        0.5188679245283019,
                        0.25471698113207547,
                        0.2169811320754717,
                        0.0,
                        0.009433962264150943
                    ]
                ],
                [
                    [
                        0.6767241379310345,
                        0.01293103448275862,
                        0.2974137931034483,
                        0.0,
                        0.01293103448275862
                    ]
                ],
                [
                    [
                        0.38823529411764707,
                        0.03529411764705882,
                        0.5764705882352941,
                        0.0,
                        0.0
                    ]
                ],
                [
                    [
                        0.9166666666666666,
                        0.08333333333333333,
                        0.0,
                        0.0,
                        0.0
                    ]
                ],
                [
                    [
                        0.9705882352941176,
                        0.029411764705882353,
                        0.0,
                        0.0,
                        0.0
                    ]
                ],
                [
                    [
                        1.0,
                        0.0,
                        0.0,
                        0.0,
                        0.0
                    ]
                ],
                [
                    [
                        0.875,
                        0.125,
                        0.0,
                        0.0,
                        0.0
                    ]
                ],
                [
                    [
                        1.0,
                        0.0,
                        0.0,
                        0.0,
                        0.0
                    ]
                ],
                [
                    [
                        0.0,
                        1.0,
                        0.0,
                        0.0,
                        0.0
                    ]
                ],
                [
                    [
                        0.0,
                        1.0,
                        0.0,
                        0.0,
                        0.0
                    ]
                ],
                [
                    [
                        0.0,
                        0.0,
                        1.0,
                        0.0,
                        0.0
                    ]
                ],
                [
                    [
                        0.8435374149659864,
                        0.0,
                        0.1360544217687075,
                        0.0,
                        0.02040816326530612
                    ]
                ],
                [
                    [
                        0.9538461538461539,
                        0.0,
                        0.03076923076923077,
                        0.0,
                        0.015384615384615385
                    ]
                ],
                [
                    [
                        0.0,
                        0.0,
                        0.0,
                        0.0,
                        1.0
                    ]
                ],
                [
                    [
                        0.9612403100775194,
                        0.0,
                        0.031007751937984496,
                        0.0,
                        0.007751937984496124
                    ]
                ],
                [
                    [
                        0.84375,
                        0.0,
                        0.125,
                        0.0,
                        0.03125
                    ]
                ],
                [
                    [
                        1.0,
                        0.0,
                        0.0,
                        0.0,
                        0.0
                    ]
                ],
                [
                    [
                        0.0,
                        0.0,
                        0.8,
                        0.0,
                        0.2
                    ]
                ],
                [
                    [
                        0.0,
                        0.0,
                        1.0,
                        0.0,
                        0.0
                    ]
                ],
                [
                    [
                        0.0,
                        0.0,
                        0.0,
                        0.0,
                        1.0
                    ]
                ],
                [
                    [
                        1.0,
                        0.0,
                        0.0,
                        0.0,
                        0.0
                    ]
                ],
                [
                    [
                        0.0,
                        0.0,
                        0.9411764705882353,
                        0.0,
                        0.058823529411764705
                    ]
                ],
                [
                    [
                        0.0,
                        0.0,
                        0.0,
                        0.0,
                        1.0
                    ]
                ],
                [
                    [
                        0.0,
                        0.0,
                        1.0,
                        0.0,
                        0.0
                    ]
                ],
                [
                    [
                        0.09302325581395349,
                        0.9069767441860465,
                        0.0,
                        0.0,
                        0.0
                    ]
                ],
                [
                    [
                        0.5,
                        0.5,
                        0.0,
                        0.0,
                        0.0
                    ]
                ],
                [
                    [
                        0.0,
                        1.0,
                        0.0,
                        0.0,
                        0.0
                    ]
                ],
                [
                    [
                        1.0,
                        0.0,
                        0.0,
                        0.0,
                        0.0
                    ]
                ],
                [
                    [
                        0.0,
                        1.0,
                        0.0,
                        0.0,
                        0.0
                    ]
                ]
            ],
            "impurity": [
                0.6937109375,
                0.4868517165814463,
                0.3673094582185491,
                0.08988964044143821,
                0.0,
                0.0,
                0.4826199367997702,
                0.07396449704142016,
                0.0,
                0.0,
                0.42240587695133147,
                0.3281807372175981,
                0.1472,
                0.2975206611570248,
                0.0,
                0.0,
                0.0,
                0.0,
                0.0,
                0.1305016928285626,
                0.308390022675737,
                0.0,
                0.0,
                0.0,
                0.6998924017307295,
                0.31999999999999995,
                0.0,
                0.0,
                0.6187255250978996,
                0.4532550535077289,
                0.5157093425605537,
                0.1527777777777778,
                0.05709342560553632,
                0.0,
                0.21875,
                0.0,
                0.0,
                0.0,
                0.0,
                0.2695173307418205,
                0.08899408284023669,
                0.0,
                0.0749954930593113,
                0.271484375,
                0.0,
                0.31999999999999995,
                0.0,
                0.0,
                0.0,
                0.11072664359861595,
                0.0,
                0.0,
                0.16873985938345049,
                0.5,
                0.0,
                0.0,
                0.0
            ]
        },
        {
            "children_left": [
                1,
                2,
                3,
                4,
                -1,
                6,
                -1,
                -1,
                9,
                -1,
                -1,
                12,
                -1,
                14,
                15,
                -1,
                -1,
                18,
                -1,
                20,
                -1,
                -1,
                23,
                -1,
                -1
            ],
            "children_right": [
                22,
                11,
                8,
                5,
                -1,
                7,
                -1,
                -1,
                10,
                -1,
                -1,
                13,
                -1,
                17,
                16,
                -1,
                -1,
                19,
                -1,
                21,
                -1,
                -1,
                24,
                -1,
                -1
            ],
            "feature": [
                18,
                10,
                0,
                2,
                -2,
                9,
                -2,
                -2,
                20,
                -2,
                -2,
                18,
                -2,
                12,
                8,
                -2,
                -2,
                5,
                -2,
                15,
                -2,
                -2,
                0,
                -2,
                -2
            ],
            "threshold": [
                3.1774693727493286,
                3.2178454399108887,
                2.1527602672576904,
                2.301231622695923,
                -2.0,
                3.653564453125,
                -2.0,
                -2.0,
                -1.4682978987693787,
                -2.0,
                -2.0,
                3.154526114463806,
                -2.0,
                -1.4620481133460999,
                3.1178016662597656,
                -2.0,
                -2.0,
                1.6511563062667847,
                -2.0,
                1.1194833517074585,
                -2.0,
                -2.0,
                2.8073089122772217,
                -2.0,
                -2.0
            ],
            "value": [
                [
                    [
                        0.4859375,
                        0.1296875,
                        0.1328125,
                        0.1015625,
                        0.15
                    ]
                ],
                [
                    [
                        0.5430579964850615,
                        0.02460456942003515,
                        0.14938488576449913,
                        0.11423550087873462,
                        0.1687170474516696
                    ]
                ],
                [
                    [
                        0.39705882352941174,
                        0.0,
                        0.20833333333333334,
                        0.15931372549019607,
                        0.23529411764705882
                    ]
                ],
                [
                    [
                        0.7136563876651982,
                        0.0,
                        0.0,
                        0.28634361233480177,
                        0.0
                    ]
                ],
                [
                    [
                        1.0,
                        0.0,
                        0.0,
                        0.0,
                        0.0
                    ]
                ],
                [
                    [
                        0.3925233644859813,
                        0.0,
                        0.0,
                        0.6074766355140186,
                        0.0
                    ]
                ],
                [
                    [
                        0.0,
                        0.0,
                        0.0,
                        1.0,
                        0.0
                    ]
                ],
                [
                    [
                        1.0,
                        0.0,
                        0.0,
                        0.0,
                        0.0
                    ]
                ],
                [
                    [
                        0.0,
                        0.0,
                        0.4696132596685083,
                        0.0,
                        0.5303867403314917
                    ]
                ],
                [
                    [
                        0.0,
                        0.0,
                        0.0,
                        0.0,
                        1.0
                    ]
                ],
                [
                    [
                        0.0,
                        0.0,
                        1.0,
                        0.0,
                        0.0
                    ]
                ],
                [
                    [
                        0.9130434782608695,
                        0.08695652173913043,
                        0.0,
                        0.0,
                        0.0
                    ]
                ],
                [
                    [
                        1.0,
                        0.0,
                        0.0,
                        0.0,
                        0.0
                    ]
                ],
                [
                    [
                        0.6216216216216216,
                        0.3783783783783784,
                        0.0,
                        0.0,
                        0.0
                    ]
                ],
                [
                    [
                        0.07692307692307693,
                        0.9230769230769231,
                        0.0,
                        0.0,
                        0.0
                    ]
                ],
                [
                    [
                        0.0,
                        1.0,
                        0.0,
                        0.0,
                        0.0
                    ]
                ],
                [
                    [
                        1.0,
                        0.0,
                        0.0,
                        0.0,
                        0.0
                    ]
                ],
                [
                    [
                        0.9166666666666666,
                        0.08333333333333333,
                        0.0,
                        0.0,
                        0.0
                    ]
                ],
                [
                    [
                        1.0,
                        0.0,
                        0.0,
                        0.0,
                        0.0
                    ]
                ],
                [
                    [
                        0.3333333333333333,
                        0.6666666666666666,
                        0.0,
                        0.0,
                        0.0
                    ]
                ],
                [
                    [
                        0.0,
                        1.0,
                        0.0,
                        0.0,
                        0.0
                    ]
                ],
                [
                    [
                        1.0,
                        0.0,
                        0.0,
                        0.0,
                        0.0
                    ]
                ],
                [
                    [
                        0.028169014084507043,
                        0.971830985915493,
                        0.0,
                        0.0,
                        0.0
                    ]
                ],
                [
                    [
                        1.0,
                        0.0,
                        0.0,
                        0.0,
                        0.0
                    ]
                ],
                [
                    [
                        0.0,
                        1.0,
                        0.0,
                        0.0,
                        0.0
                    ]
                ]
            ],
            "impurity": [
                0.696591796875,
                0.6406515917605888,
                0.7181973279507882,
                0.40870189601971707,
                0.0,
                0.47689754563717357,
                0.0,
                0.0,
                0.498153292024053,
                0.0,
                0.0,
                0.1587901701323251,
                0.0,
                0.47041636230825423,
                0.14201183431952658,
                0.0,
                0.0,
                0.1527777777777778,
                0.0,
                0.4444444444444444,
                0.0,
                0.0,
                0.05475104146002774,
                0.0,
                0.0
            ]
        },
        {
            "children_left": [
                1,
                2,
                3,
                4,
                5,
                -1,
                7,
                -1,
                -1,
                10,
                11,
                12,
                13,
                14,
                15,
                -1,
                17,
                -1,
                -1,
                20,
                -1,
                -1,
                -1,
                24,
                -1,
                -1,
                -1,
                -1,
                29,
                30,
                -1,
                -1,
                -1,
                34,
                -1,
                36,
                -1,
                38,
                -1,
                -1,
                -1
            ],
            "children_right": [
                40,
                33,
                28,
                9,
                6,
                -1,
                8,
                -1,
                -1,
                27,
                26,
                23,
                22,
                19,
                16,
                -1,
                18,
                -1,
                -1,
                21,
                -1,
                -1,
                -1,
                25,
                -1,
                -1,
                -1,
                -1,
                32,
                31,
                -1,
                -1,
                -1,
                35,
                -1,
                37,
                -1,
                39,
                -1,
                -1,
                -1
            ],
            "feature": [
                23,
                8,
                15,
                16,
                10,
                -2,
                2,
                -2,
                -2,
                16,
                1,
                14,
                20,
                1,
                7,
                -2,
                2,
                -2,
                -2,
                9,
                -2,
                -2,
                -2,
                18,
                -2,
                -2,
                -2,
                -2,
                10,
                2,
                -2,
                -2,
                -2,
                19,
                -2,
                16,
                -2,
                2,
                -2,
                -2,
                -2
            ],
            "threshold": [
                1.1322913765907288,
                3.0844417810440063,
                1.1273932456970215,
                2.183037281036377,
                2.326712965965271,
                -2.0,
                2.4039136171340942,
                -2.0,
                -2.0,
                2.852993369102478,
                4.98236083984375,
                1.8327486515045166,
                -1.4604003429412842,
                4.86224365234375,
                1.1120202541351318,
                -2.0,
                2.3165524005889893,
                -2.0,
                -2.0,
                5.56292724609375,
                -2.0,
                -2.0,
                -2.0,
                2.6712218523025513,
                -2.0,
                -2.0,
                -2.0,
                -2.0,
                2.1404402256011963,
                2.299720883369446,
                -2.0,
                -2.0,
                -2.0,
                -0.006053506396710873,
                -2.0,
                2.839530348777771,
                -2.0,
                3.108366370201111,
                -2.0,
                -2.0,
                -2.0
            ],
            "value": [
                [
                    [
                        0.53125,
                        0.1171875,
                        0.0984375,
                        0.1203125,
                        0.1328125
                    ]
                ],
                [
                    [
                        0.5782312925170068,
                        0.12755102040816327,
                        0.01870748299319728,
                        0.13095238095238096,
                        0.1445578231292517
                    ]
                ],
                [
                    [
                        0.631578947368421,
                        0.018218623481781375,
                        0.022267206477732792,
                        0.15587044534412955,
                        0.1720647773279352
                    ]
                ],
                [
                    [
                        0.7380952380952381,
                        0.02142857142857143,
                        0.02619047619047619,
                        0.011904761904761904,
                        0.20238095238095238
                    ]
                ],
                [
                    [
                        0.543010752688172,
                        0.0,
                        0.0,
                        0.0,
                        0.45698924731182794
                    ]
                ],
                [
                    [
                        1.0,
                        0.0,
                        0.0,
                        0.0,
                        0.0
                    ]
                ],
                [
                    [
                        0.3795620437956204,
                        0.0,
                        0.0,
                        0.0,
                        0.6204379562043796
                    ]
                ],
                [
                    [
                        1.0,
                        0.0,
                        0.0,
                        0.0,
                        0.0
                    ]
                ],
                [
                    [
                        0.0,
                        0.0,
                        0.0,
                        0.0,
                        1.0
                    ]
                ],
                [
                    [
                        0.8931623931623932,
                        0.038461538461538464,
                        0.04700854700854701,
                        0.021367521367521368,
                        0.0
                    ]
                ],
                [
                    [
                        0.9166666666666666,
                        0.013157894736842105,
                        0.04824561403508772,
                        0.021929824561403508,
                        0.0
                    ]
                ],
                [
                    [
                        0.8582089552238806,
                        0.022388059701492536,
                        0.08208955223880597,
                        0.03731343283582089,
                        0.0
                    ]
                ],
                [
                    [
                        0.912,
                        0.024,
                        0.024,
                        0.04,
                        0.0
                    ]
                ],
                [
                    [
                        0.9344262295081968,
                        0.02459016393442623,
                        0.0,
                        0.040983606557377046,
                        0.0
                    ]
                ],
                [
                    [
                        0.9553571428571429,
                        0.0,
                        0.0,
                        0.044642857142857144,
                        0.0
                    ]
                ],
                [
                    [
                        1.0,
                        0.0,
                        0.0,
                        0.0,
                        0.0
                    ]
                ],
                [
                    [
                        0.16666666666666666,
                        0.0,
                        0.0,
                        0.8333333333333334,
                        0.0
                    ]
                ],
                [
                    [
                        1.0,
                        0.0,
                        0.0,
                        0.0,
                        0.0
                    ]
                ],
                [
                    [
                        0.0,
                        0.0,
                        0.0,
                        1.0,
                        0.0
                    ]
                ],
                [
                    [
                        0.7,
                        0.3,
                        0.0,
                        0.0,
                        0.0
                    ]
                ],
                [
                    [
                        0.0,
                        1.0,
                        0.0,
                        0.0,
                        0.0
                    ]
                ],
                [
                    [
                        1.0,
                        0.0,
                        0.0,
                        0.0,
                        0.0
                    ]
                ],
                [
                    [
                        0.0,
                        0.0,
                        1.0,
                        0.0,
                        0.0
                    ]
                ],
                [
                    [
                        0.1111111111111111,
                        0.0,
                        0.8888888888888888,
                        0.0,
                        0.0
                    ]
                ],
                [
                    [
                        1.0,
                        0.0,
                        0.0,
                        0.0,
                        0.0
                    ]
                ],
                [
                    [
                        0.0,
                        0.0,
                        1.0,
                        0.0,
                        0.0
                    ]
                ],
                [
                    [
                        1.0,
                        0.0,
                        0.0,
                        0.0,
                        0.0
                    ]
                ],
                [
                    [
                        0.0,
                        1.0,
                        0.0,
                        0.0,
                        0.0
                    ]
                ],
                [
                    [
                        0.02702702702702703,
                        0.0,
                        0.0,
                        0.972972972972973,
                        0.0
                    ]
                ],
                [
                    [
                        0.09090909090909091,
                        0.0,
                        0.0,
                        0.9090909090909091,
                        0.0
                    ]
                ],
                [
                    [
                        1.0,
                        0.0,
                        0.0,
                        0.0,
                        0.0
                    ]
                ],
                [
                    [
                        0.0,
                        0.0,
                        0.0,
                        1.0,
                        0.0
                    ]
                ],
                [
                    [
                        0.0,
                        0.0,
                        0.0,
                        1.0,
                        0.0
                    ]
                ],
                [
                    [
                        0.2978723404255319,
                        0.7021276595744681,
                        0.0,
                        0.0,
                        0.0
                    ]
                ],
                [
                    [
                        1.0,
                        0.0,
                        0.0,
                        0.0,
                        0.0
                    ]
                ],
                [
                    [
                        0.2235294117647059,
                        0.7764705882352941,
                        0.0,
                        0.0,
                        0.0
                    ]
                ],
                [
                    [
                        1.0,
                        0.0,
                        0.0,
                        0.0,
                        0.0
                    ]
                ],
                [
                    [
                        0.07042253521126761,
                        0.9295774647887324,
                        0.0,
                        0.0,
                        0.0
                    ]
                ],
                [
                    [
                        1.0,
                        0.0,
                        0.0,
                        0.0,
                        0.0
                    ]
                ],
                [
                    [
                        0.0,
                        1.0,
                        0.0,
                        0.0,
                        0.0
                    ]
                ],
                [
                    [
                        0.0,
                        0.0,
                        1.0,
                        0.0,
                        0.0
                    ]
                ]
            ],
            "impurity": [
                0.662236328125,
                0.6109838493220417,
                0.5463784031864152,
                0.41297052154195013,
                0.49630015030639385,
                0.0,
                0.47098939741062396,
                0.0,
                0.0,
                0.1981152750383519,
                0.15674053554939982,
                0.25484517709957677,
                0.16550399999999998,
                0.12456328943832307,
                0.08529974489795922,
                0.0,
                0.2777777777777778,
                0.0,
                0.0,
                0.42000000000000004,
                0.0,
                0.0,
                0.0,
                0.19753086419753085,
                0.0,
                0.0,
                0.0,
                0.0,
                0.05259313367421481,
                0.1652892561983471,
                0.0,
                0.0,
                0.0,
                0.41828881846989585,
                0.0,
                0.34712802768166084,
                0.0,
                0.13092640349137075,
                0.0,
                0.0,
                0.0
            ]
        },
        {
            "children_left": [
                1,
                2,
                3,
                -1,
                -1,
                6,
                -1,
                8,
                9,
                10,
                -1,
                -1,
                13,
                -1,
                -1,
                -1,
                17,
                18,
                -1,
                20,
                -1,
                -1,
                23,
                24,
                -1,
                -1,
                27,
                -1,
                29,
                30,
                -1,
                -1,
                33,
                -1,
                35,
                -1,
                -1
            ],
            "children_right": [
                16,
                5,
                4,
                -1,
                -1,
                7,
                -1,
                15,
                12,
                11,
                -1,
                -1,
                14,
                -1,
                -1,
                -1,
                22,
                19,
                -1,
                21,
                -1,
                -1,
                26,
                25,
                -1,
                -1,
                28,
                -1,
                32,
                31,
                -1,
                -1,
                34,
                -1,
                36,
                -1,
                -1
            ],
            "feature": [
                7,
                7,
                8,
                -2,
                -2,
                18,
                -2,
                14,
                20,
                23,
                -2,
                -2,
                2,
                -2,
                -2,
                -2,
                8,
                17,
                -2,
                0,
                -2,
                -2,
                20,
                2,
                -2,
                -2,
                6,
                -2,
                18,
                5,
                -2,
                -2,
                0,
                -2,
                1,
                -2,
                -2
            ],
            "threshold": [
                1.1121347546577454,
                1.1058481335639954,
                2.476916551589966,
                -2.0,
                -2.0,
                3.1694271564483643,
                -2.0,
                1.8754994869232178,
                -1.4771719574928284,
                1.1155136823654175,
                -2.0,
                -2.0,
                3.1177228689193726,
                -2.0,
                -2.0,
                -2.0,
                2.0809502005577087,
                3.90380859375,
                -2.0,
                2.067687153816223,
                -2.0,
                -2.0,
                -1.4703898429870605,
                2.4029418230056763,
                -2.0,
                -2.0,
                1.7833554148674011,
                -2.0,
                2.9817333221435547,
                1.7065431475639343,
                -2.0,
                -2.0,
                2.7861582040786743,
                -2.0,
                6.76409912109375,
                -2.0,
                -2.0
            ],
            "value": [
                [
                    [
                        0.54375,
                        0.115625,
                        0.0953125,
                        0.128125,
                        0.1171875
                    ]
                ],
                [
                    [
                        0.7392857142857143,
                        0.26071428571428573,
                        0.0,
                        0.0,
                        0.0
                    ]
                ],
                [
                    [
                        0.023809523809523808,
                        0.9761904761904762,
                        0.0,
                        0.0,
                        0.0
                    ]
                ],
                [
                    [
                        1.0,
                        0.0,
                        0.0,
                        0.0,
                        0.0
                    ]
                ],
                [
                    [
                        0.0,
                        1.0,
                        0.0,
                        0.0,
                        0.0
                    ]
                ],
                [
                    [
                        0.865546218487395,
                        0.13445378151260504,
                        0.0,
                        0.0,
                        0.0
                    ]
                ],
                [
                    [
                        1.0,
                        0.0,
                        0.0,
                        0.0,
                        0.0
                    ]
                ],
                [
                    [
                        0.2727272727272727,
                        0.7272727272727273,
                        0.0,
                        0.0,
                        0.0
                    ]
                ],
                [
                    [
                        0.1794871794871795,
                        0.8205128205128205,
                        0.0,
                        0.0,
                        0.0
                    ]
                ],
                [
                    [
                        0.8,
                        0.2,
                        0.0,
                        0.0,
                        0.0
                    ]
                ],
                [
                    [
                        1.0,
                        0.0,
                        0.0,
                        0.0,
                        0.0
                    ]
                ],
                [
                    [
                        0.0,
                        1.0,
                        0.0,
                        0.0,
                        0.0
                    ]
                ],
                [
                    [
                        0.08823529411764706,
                        0.9117647058823529,
                        0.0,
                        0.0,
                        0.0
                    ]
                ],
                [
                    [
                        1.0,
                        0.0,
                        0.0,
                        0.0,
                        0.0
                    ]
                ],
                [
                    [
                        0.0,
                        1.0,
                        0.0,
                        0.0,
                        0.0
                    ]
                ],
                [
                    [
                        1.0,
                        0.0,
                        0.0,
                        0.0,
                        0.0
                    ]
                ],
                [
                    [
                        0.39166666666666666,
                        0.002777777777777778,
                        0.16944444444444445,
                        0.22777777777777777,
                        0.20833333333333334
                    ]
                ],
                [
                    [
                        0.06818181818181818,
                        0.0,
                        0.0,
                        0.9318181818181818,
                        0.0
                    ]
                ],
                [
                    [
                        1.0,
                        0.0,
                        0.0,
                        0.0,
                        0.0
                    ]
                ],
                [
                    [
                        0.05747126436781609,
                        0.0,
                        0.0,
                        0.9425287356321839,
                        0.0
                    ]
                ],
                [
                    [
                        1.0,
                        0.0,
                        0.0,
                        0.0,
                        0.0
                    ]
                ],
                [
                    [
                        0.0,
                        0.0,
                        0.0,
                        1.0,
                        0.0
                    ]
                ],
                [
                    [
                        0.4963235294117647,
                        0.003676470588235294,
                        0.22426470588235295,
                        0.0,
                        0.2757352941176471
                    ]
                ],
                [
                    [
                        0.29245283018867924,
                        0.0,
                        0.0,
                        0.0,
                        0.7075471698113207
                    ]
                ],
                [
                    [
                        1.0,
                        0.0,
                        0.0,
                        0.0,
                        0.0
                    ]
                ],
                [
                    [
                        0.0,
                        0.0,
                        0.0,
                        0.0,
                        1.0
                    ]
                ],
                [
                    [
                        0.6265060240963856,
                        0.006024096385542169,
                        0.3674698795180723,
                        0.0,
                        0.0
                    ]
                ],
                [
                    [
                        0.0,
                        0.0,
                        1.0,
                        0.0,
                        0.0
                    ]
                ],
                [
                    [
                        0.9285714285714286,
                        0.008928571428571428,
                        0.0625,
                        0.0,
                        0.0
                    ]
                ],
                [
                    [
                        0.6,
                        0.0,
                        0.4,
                        0.0,
                        0.0
                    ]
                ],
                [
                    [
                        0.0,
                        0.0,
                        1.0,
                        0.0,
                        0.0
                    ]
                ],
                [
                    [
                        1.0,
                        0.0,
                        0.0,
                        0.0,
                        0.0
                    ]
                ],
                [
                    [
                        0.979381443298969,
                        0.010309278350515464,
                        0.010309278350515464,
                        0.0,
                        0.0
                    ]
                ],
                [
                    [
                        0.0,
                        0.0,
                        1.0,
                        0.0,
                        0.0
                    ]
                ],
                [
                    [
                        0.9895833333333334,
                        0.010416666666666666,
                        0.0,
                        0.0,
                        0.0
                    ]
                ],
                [
                    [
                        1.0,
                        0.0,
                        0.0,
                        0.0,
                        0.0
                    ]
                ],
                [
                    [
                        0.0,
                        1.0,
                        0.0,
                        0.0,
                        0.0
                    ]
                ]
            ],
            "impurity": [
                0.6517333984375,
                0.385484693877551,
                0.046485260770975034,
                0.0,
                0.0,
                0.23275192429913139,
                0.0,
                0.39669421487603307,
                0.294543063773833,
                0.31999999999999995,
                0.0,
                0.0,
                0.16089965397923878,
                0.0,
                0.0,
                0.0,
                0.7225925925925927,
                0.1270661157024794,
                0.0,
                0.10833663627956136,
                0.0,
                0.0,
                0.6273248269896194,
                0.41384834460662157,
                0.0,
                0.0,
                0.4724197996806503,
                0.0,
                0.13376913265306123,
                0.48,
                0.0,
                0.0,
                0.04059942608141143,
                0.0,
                0.02061631944444442,
                0.0,
                0.0
            ]
        },
        {
            "children_left": [
                1,
                2,
                3,
                4,
                5,
                6,
                7,
                -1,
                -1,
                10,
                -1,
                -1,
                13,
                14,
                -1,
                -1,
                17,
                18,
                -1,
                -1,
                -1,
                22,
                -1,
                -1,
                25,
                -1,
                27,
                28,
                -1,
                30,
                -1,
                -1,
                -1,
                34,
                -1,
                -1,
                37,
                -1,
                -1
            ],
            "children_right": [
                36,
                33,
                24,
                21,
                12,
                9,
                8,
                -1,
                -1,
                11,
                -1,
                -1,
                16,
                15,
                -1,
                -1,
                20,
                19,
                -1,
                -1,
                -1,
                23,
                -1,
                -1,
                26,
                -1,
                32,
                29,
                -1,
                31,
                -1,
                -1,
                -1,
                35,
                -1,
                -1,
                38,
                -1,
                -1
            ],
            "feature": [
                16,
                23,
                9,
                18,
                8,
                1,
                7,
                -2,
                -2,
                15,
                -2,
                -2,
                21,
                0,
                -2,
                -2,
                4,
                19,
                -2,
                -2,
                -2,
                17,
                -2,
                -2,
                4,
                -2,
                14,
                5,
                -2,
                0,
                -2,
                -2,
                -2,
                1,
                -2,
                -2,
                0,
                -2,
                -2
            ],
            "threshold": [
                2.839998245239258,
                1.1322913765907288,
                5.24261474609375,
                2.5416003465652466,
                2.0872763991355896,
                3.38330078125,
                1.1127323508262634,
                -2.0,
                -2.0,
                1.125847041606903,
                -2.0,
                -2.0,
                1.6895669102668762,
                2.1527602672576904,
                -2.0,
                -2.0,
                -1.447804033756256,
                -0.002671109396032989,
                -2.0,
                -2.0,
                -2.0,
                4.42431640625,
                -2.0,
                -2.0,
                -1.5422989130020142,
                -2.0,
                1.7707296013832092,
                1.5460801720619202,
                -2.0,
                2.8085525035858154,
                -2.0,
                -2.0,
                -2.0,
                5.1800537109375,
                -2.0,
                -2.0,
                2.807441473007202,
                -2.0,
                -2.0
            ],
            "value": [
                [
                    [
                        0.5203125,
                        0.128125,
                        0.115625,
                        0.1125,
                        0.1234375
                    ]
                ],
                [
                    [
                        0.5795246800731262,
                        0.009140767824497258,
                        0.13528336380255943,
                        0.1316270566727605,
                        0.14442413162705667
                    ]
                ],
                [
                    [
                        0.6435845213849287,
                        0.010183299389002037,
                        0.038696537678207736,
                        0.14663951120162932,
                        0.16089613034623218
                    ]
                ],
                [
                    [
                        0.5303867403314917,
                        0.0,
                        0.052486187845303865,
                        0.19889502762430938,
                        0.21823204419889503
                    ]
                ],
                [
                    [
                        0.6336633663366337,
                        0.0,
                        0.0,
                        0.10561056105610561,
                        0.2607260726072607
                    ]
                ],
                [
                    [
                        0.8095238095238095,
                        0.0,
                        0.0,
                        0.19047619047619047,
                        0.0
                    ]
                ],
                [
                    [
                        0.927007299270073,
                        0.0,
                        0.0,
                        0.072992700729927,
                        0.0
                    ]
                ],
                [
                    [
                        1.0,
                        0.0,
                        0.0,
                        0.0,
                        0.0
                    ]
                ],
                [
                    [
                        0.0,
                        0.0,
                        0.0,
                        1.0,
                        0.0
                    ]
                ],
                [
                    [
                        0.2903225806451613,
                        0.0,
                        0.0,
                        0.7096774193548387,
                        0.0
                    ]
                ],
                [
                    [
                        1.0,
                        0.0,
                        0.0,
                        0.0,
                        0.0
                    ]
                ],
                [
                    [
                        0.0,
                        0.0,
                        0.0,
                        1.0,
                        0.0
                    ]
                ],
                [
                    [
                        0.4148148148148148,
                        0.0,
                        0.0,
                        0.0,
                        0.5851851851851851
                    ]
                ],
                [
                    [
                        0.2621359223300971,
                        0.0,
                        0.0,
                        0.0,
                        0.7378640776699029
                    ]
                ],
                [
                    [
                        1.0,
                        0.0,
                        0.0,
                        0.0,
                        0.0
                    ]
                ],
                [
                    [
                        0.0,
                        0.0,
                        0.0,
                        0.0,
                        1.0
                    ]
                ],
                [
                    [
                        0.90625,
                        0.0,
                        0.0,
                        0.0,
                        0.09375
                    ]
                ],
                [
                    [
                        0.9666666666666667,
                        0.0,
                        0.0,
                        0.0,
                        0.03333333333333333
                    ]
                ],
                [
                    [
                        0.0,
                        0.0,
                        0.0,
                        0.0,
                        1.0
                    ]
                ],
                [
                    [
                        1.0,
                        0.0,
                        0.0,
                        0.0,
                        0.0
                    ]
                ],
                [
                    [
                        0.0,
                        0.0,
                        0.0,
                        0.0,
                        1.0
                    ]
                ],
                [
                    [
                        0.0,
                        0.0,
                        0.3220338983050847,
                        0.6779661016949152,
                        0.0
                    ]
                ],
                [
                    [
                        0.0,
                        0.0,
                        0.0,
                        1.0,
                        0.0
                    ]
                ],
                [
                    [
                        0.0,
                        0.0,
                        1.0,
                        0.0,
                        0.0
                    ]
                ],
                [
                    [
                        0.9612403100775194,
                        0.03875968992248062,
                        0.0,
                        0.0,
                        0.0
                    ]
                ],
                [
                    [
                        0.0,
                        1.0,
                        0.0,
                        0.0,
                        0.0
                    ]
                ],
                [
                    [
                        0.9841269841269841,
                        0.015873015873015872,
                        0.0,
                        0.0,
                        0.0
                    ]
                ],
                [
                    [
                        0.8666666666666667,
                        0.13333333333333333,
                        0.0,
                        0.0,
                        0.0
                    ]
                ],
                [
                    [
                        1.0,
                        0.0,
                        0.0,
                        0.0,
                        0.0
                    ]
                ],
                [
                    [
                        0.3333333333333333,
                        0.6666666666666666,
                        0.0,
                        0.0,
                        0.0
                    ]
                ],
                [
                    [
                        1.0,
                        0.0,
                        0.0,
                        0.0,
                        0.0
                    ]
                ],
                [
                    [
                        0.0,
                        1.0,
                        0.0,
                        0.0,
                        0.0
                    ]
                ],
                [
                    [
                        1.0,
                        0.0,
                        0.0,
                        0.0,
                        0.0
                    ]
                ],
                [
                    [
                        0.017857142857142856,
                        0.0,
                        0.9821428571428571,
                        0.0,
                        0.0
                    ]
                ],
                [
                    [
                        0.0,
                        0.0,
                        1.0,
                        0.0,
                        0.0
                    ]
                ],
                [
                    [
                        1.0,
                        0.0,
                        0.0,
                        0.0,
                        0.0
                    ]
                ],
                [
                    [
                        0.17204301075268819,
                        0.8279569892473119,
                        0.0,
                        0.0,
                        0.0
                    ]
                ],
                [
                    [
                        1.0,
                        0.0,
                        0.0,
                        0.0,
                        0.0
                    ]
                ],
                [
                    [
                        0.0,
                        1.0,
                        0.0,
                        0.0,
                        0.0
                    ]
                ]
            ],
            "impurity": [
                0.6715966796874999,
                0.6075819911834203,
                0.5368071312131607,
                0.6287506486370991,
                0.5193390626191332,
                0.308390022675737,
                0.1353295327401567,
                0.0,
                0.0,
                0.4120707596253902,
                0.0,
                0.0,
                0.48548696844993144,
                0.38684136110849277,
                0.0,
                0.0,
                0.169921875,
                0.06444444444444442,
                0.0,
                0.0,
                0.0,
                0.43665613329503017,
                0.0,
                0.0,
                0.0745147527191875,
                0.0,
                0.031242126480221732,
                0.23111111111111116,
                0.0,
                0.4444444444444444,
                0.0,
                0.0,
                0.0,
                0.035076530612244916,
                0.0,
                0.0,
                0.2848884264076772,
                0.0,
                0.0
            ]
        },
        {
            "children_left": [
                1,
                2,
                3,
                -1,
                -1,
                6,
                -1,
                8,
                -1,
                10,
                11,
                12,
                -1,
                -1,
                -1,
                16,
                -1,
                18,
                -1,
                -1,
                21,
                22,
                23,
                24,
                -1,
                -1,
                -1,
                -1,
                -1
            ],
            "children_right": [
                20,
                5,
                4,
                -1,
                -1,
                7,
                -1,
                9,
                -1,
                15,
                14,
                13,
                -1,
                -1,
                -1,
                17,
                -1,
                19,
                -1,
                -1,
                28,
                27,
                26,
                25,
                -1,
                -1,
                -1,
                -1,
                -1
            ],
            "feature": [
                15,
                7,
                2,
                -2,
                -2,
                2,
                -2,
                10,
                -2,
                10,
                11,
                11,
                -2,
                -2,
                -2,
                7,
                -2,
                9,
                -2,
                -2,
                18,
                18,
                10,
                2,
                -2,
                -2,
                -2,
                -2,
                -2
            ],
            "threshold": [
                1.1250749826431274,
                1.1079255938529968,
                3.104559302330017,
                -2.0,
                -2.0,
                2.4031472206115723,
                -2.0,
                2.822851538658142,
                -2.0,
                3.452734589576721,
                0.0011184205650351942,
                -0.00016232525649684248,
                -2.0,
                -2.0,
                -2.0,
                1.1088846325874329,
                -2.0,
                6.62396240234375,
                -2.0,
                -2.0,
                2.7333251237869263,
                2.5216987133026123,
                2.1412572860717773,
                2.3023886680603027,
                -2.0,
                -2.0,
                -2.0,
                -2.0,
                -2.0
            ],
            "value": [
                [
                    [
                        0.4984375,
                        0.121875,
                        0.1265625,
                        0.1265625,
                        0.1265625
                    ]
                ],
                [
                    [
                        0.6478260869565218,
                        0.16956521739130434,
